{
  "nh": 100,
  "ns": 4,
  "na": 8,
  "net": {
    "W1": {
      "n": 100,
      "d": 4,
      "w": {
        "0": 0.05989615527948582,
        "1": -0.025599973214332068,
        "2": 0.02355559090810087,
        "3": 0.011186742584064662,
        "4": -0.031154160408588625,
        "5": -0.008779112609539884,
        "6": 0.009621871841077408,
        "7": -0.022347598957690226,
        "8": -0.037580184100472036,
        "9": -0.030457898969707298,
        "10": 0.012772695121841083,
        "11": 0.004635063284497319,
        "12": -0.017436596487412366,
        "13": -0.039680798778709864,
        "14": 0.013323364793517634,
        "15": -0.03741835824942703,
        "16": -0.034216270414311835,
        "17": -0.01684411652400496,
        "18": -0.01459708184072552,
        "19": 0.0006145436218915959,
        "20": 0.03870592448424319,
        "21": -0.0016716028932325204,
        "22": -0.0010827955425399911,
        "23": 0.011923347670296423,
        "24": -0.010156618398769905,
        "25": -0.01508007859827647,
        "26": -0.013083109280794902,
        "27": -0.01871458527002657,
        "28": 0.0049392751832448775,
        "29": 0.051048781271808195,
        "30": -0.02039646062465194,
        "31": -0.03958671762533729,
        "32": -0.053233386294523906,
        "33": 0.025499180038086235,
        "34": 0.08366538343335504,
        "35": -0.04213067044916329,
        "36": 0.013318015443690101,
        "37": 0.015540723753680876,
        "38": 0.009062345956918775,
        "39": 0.026832792183876904,
        "40": -0.04224800709333641,
        "41": -0.021839269875927908,
        "42": 0.08967094832654296,
        "43": 0.015123338334024206,
        "44": 0.02184146712701138,
        "45": -0.0756279536463467,
        "46": 0.01545848330140176,
        "47": -0.030543512585919932,
        "48": 0.023566484507192193,
        "49": -0.017892528154632808,
        "50": 0.04029820608438522,
        "51": -0.0013398623102642865,
        "52": -0.020067854383419206,
        "53": -0.012169515167795807,
        "54": -0.01838224887769381,
        "55": -0.009475431408515702,
        "56": 0.014711811615239344,
        "57": 0.011794270730626904,
        "58": 0.013714394281262764,
        "59": 0.014981238883378323,
        "60": 0.08221198103673216,
        "61": -0.031595592692362374,
        "62": -0.07034141633908801,
        "63": 0.06205784518884548,
        "64": -0.03635722402596749,
        "65": -0.07511001528356309,
        "66": 0.07017971557132346,
        "67": 0.0611630403487116,
        "68": -0.061227154616669985,
        "69": 0.05642266894335612,
        "70": -0.017724852421710773,
        "71": 0.00040761515582015556,
        "72": -0.011341433437543208,
        "73": -0.014407199520216865,
        "74": -0.026993011500093745,
        "75": -0.008922724230884282,
        "76": -0.013945006213704824,
        "77": -0.014978159126873046,
        "78": -0.016079148879106518,
        "79": -0.00704704687960019,
        "80": 0.022006064828766377,
        "81": 0.0056773175602199705,
        "82": 0.015351919376799866,
        "83": 0.0078391469431618,
        "84": -0.01583465878734559,
        "85": -0.01904344164850459,
        "86": -0.0019327913291941636,
        "87": -0.024781006699311776,
        "88": -0.0711522542421349,
        "89": 0.00394379095092769,
        "90": 0.1197102876652294,
        "91": -0.021491918789637306,
        "92": -0.051289996970232864,
        "93": -0.05880284014775611,
        "94": 0.09428081793744147,
        "95": 0.05057385957278177,
        "96": 0.0454470116434203,
        "97": 0.01862402142889168,
        "98": 0.002738517224981869,
        "99": -0.02012717125184353,
        "100": -0.037252360832230484,
        "101": 0.022934167703976615,
        "102": -0.03139022491366711,
        "103": -0.008866850625143936,
        "104": -0.0312749479787606,
        "105": -0.023876612249920767,
        "106": 0.012645479302626082,
        "107": -0.01050840616266951,
        "108": -0.08228923213877368,
        "109": 0.020024250028681616,
        "110": 0.1519921767451144,
        "111": 0.04433733508978972,
        "112": 0.04614659192298263,
        "113": 0.037610925481731595,
        "114": -0.019062157446284825,
        "115": -0.0035405241346959816,
        "116": -0.03973509563515427,
        "117": -0.015882141169139084,
        "118": -0.00154157141880683,
        "119": 0.0041877764690386255,
        "120": -0.01666734194821516,
        "121": -0.0669787502555692,
        "122": 0.029646957794276035,
        "123": 0.05445850497637182,
        "124": 0.023360754772312725,
        "125": -0.0009473407165448858,
        "126": 0.010118604240029336,
        "127": 0.023098410779708117,
        "128": 0.038180741640153476,
        "129": 0.017787208327985148,
        "130": -0.003802861084767049,
        "131": 0.0021985764689467025,
        "132": 0.004360145322412123,
        "133": 0.04240011002974027,
        "134": -0.029061542654246285,
        "135": -0.0030962986729134467,
        "136": -0.06424640535944753,
        "137": 0.029354051314757927,
        "138": -0.026992051369792203,
        "139": -0.01109541627345847,
        "140": -0.0003939730386125966,
        "141": -0.013374232537139657,
        "142": -0.0035252309078589545,
        "143": -0.005124464871610614,
        "144": 0.015021020773370647,
        "145": 0.002428176171884436,
        "146": -0.019069589351905017,
        "147": -0.021765302324798366,
        "148": 0.0071867769645487705,
        "149": 0.06807019751249233,
        "150": -0.028316967376043205,
        "151": -0.03558410928819262,
        "152": -0.015898002562713193,
        "153": -0.0026231777544076557,
        "154": -0.02787674013067394,
        "155": -0.012910445741122144,
        "156": 0.0715277334753191,
        "157": -0.03200593624535703,
        "158": 0.02058079130256994,
        "159": -0.0010112148786047583,
        "160": 0.05505274447783568,
        "161": -0.028059024273755732,
        "162": -0.09076791997568925,
        "163": 0.042066215999355845,
        "164": -0.013177891646243929,
        "165": 0.03295083110211942,
        "166": -0.07187704810238298,
        "167": 0.03076009798249494,
        "168": 0.029206297839958817,
        "169": 0.030214006743148506,
        "170": -0.003743400213461127,
        "171": -0.00951143711172698,
        "172": -0.03504624141622898,
        "173": -0.00047281940047718193,
        "174": -0.015111464612075475,
        "175": -0.005627328060273179,
        "176": -0.07303407169857294,
        "177": 0.03360841812879783,
        "178": -0.028085104080697563,
        "179": -0.012376438779224463,
        "180": -0.03045423057891871,
        "181": -0.0075197501765664615,
        "182": 0.09064256558088828,
        "183": -0.027816436786540055,
        "184": -0.008218527963319722,
        "185": 0.00883393989281714,
        "186": -0.027922531390912074,
        "187": 0.017782202796211427,
        "188": 0.05073402625893863,
        "189": -0.0758030915715991,
        "190": -0.02749124436480103,
        "191": 0.06670861784007191,
        "192": -0.010450310311670393,
        "193": -0.0022352466441981317,
        "194": -0.02012035974644464,
        "195": -0.02644648758433265,
        "196": 0.03979810864039797,
        "197": 0.011112256918130415,
        "198": -0.01048217280060445,
        "199": 0.010901399164270784,
        "200": -0.011970710841264689,
        "201": 0.0002454372360570375,
        "202": -0.027888720976842214,
        "203": -0.012591445892096226,
        "204": 0.033535759493939846,
        "205": 0.0074231772010306275,
        "206": -0.02228931596246213,
        "207": 0.023205302584610617,
        "208": -0.03838102626222922,
        "209": -0.0012286172802519412,
        "210": -0.012458502945444752,
        "211": -0.00502001083526627,
        "212": 0.01844046431879155,
        "213": 0.00708909558334827,
        "214": -0.0074012008366998085,
        "215": 0.05401348739400838,
        "216": -0.012105874037206012,
        "217": -0.01865797236426412,
        "218": -0.02903749883024862,
        "219": 0.0031404374963999743,
        "220": -0.05287614506224064,
        "221": -0.06228757384359651,
        "222": 0.004407546967976474,
        "223": 0.03283976784777386,
        "224": -0.029152007501997954,
        "225": -0.03709010183757302,
        "226": 0.07783361542557378,
        "227": -0.035378083632233714,
        "228": -0.020206231194670143,
        "229": -0.004543113921440172,
        "230": -0.02148054817628471,
        "231": -0.013018996394412848,
        "232": 0.008220102033856197,
        "233": -0.04504597950610254,
        "234": -0.03244844428704427,
        "235": 0.018993173698829906,
        "236": 0.014882466769147283,
        "237": 0.002177825796158827,
        "238": 0.02484018508861365,
        "239": 0.015601627513798816,
        "240": -0.041717034190077475,
        "241": -0.012762568278789578,
        "242": 0.024701681617029285,
        "243": -0.04577440566576458,
        "244": -0.04504253711435927,
        "245": -0.020099912690258914,
        "246": 0.03467841594054285,
        "247": -0.03008504984509939,
        "248": 0.03303959604494968,
        "249": 0.013911295953080964,
        "250": 0.002604433550209935,
        "251": -0.0001753059855077922,
        "252": 0.014405927175510456,
        "253": 0.04139483452584657,
        "254": -0.09001362644156581,
        "255": 0.011911781157570928,
        "256": 0.04297816017346379,
        "257": 0.03293325904937352,
        "258": -0.011711704744831783,
        "259": -0.009678887349353071,
        "260": -0.026429770574670622,
        "261": -0.017300566182696323,
        "262": -0.006207474841340607,
        "263": 0.0011108443326967542,
        "264": 0.011553844353199887,
        "265": 0.05922560719905871,
        "266": -0.012917680903594504,
        "267": 0.03651840589053263,
        "268": -0.02113427773225278,
        "269": -0.009679271905697423,
        "270": -0.006284339840292288,
        "271": -0.016093736181564313,
        "272": 0.0715674848914799,
        "273": -0.055974969180341914,
        "274": -0.015336803392696968,
        "275": 0.02089055493822464,
        "276": -0.07731992318040042,
        "277": 0.06258113400763932,
        "278": -0.01778638726853502,
        "279": 0.007890646934004427,
        "280": -0.06694332650944997,
        "281": 0.03178041490669761,
        "282": 0.05726450238966867,
        "283": -0.06276820627478026,
        "284": 0.03011509278133226,
        "285": -0.0002305312000834758,
        "286": 0.006126184030694761,
        "287": 0.014855546811483503,
        "288": -0.0040034815936383595,
        "289": -0.006599972052497576,
        "290": -0.011583259226503792,
        "291": -0.002416176894692066,
        "292": 0.0764442843749921,
        "293": 0.06311768925378722,
        "294": -0.052871234046200366,
        "295": 0.002367686602962668,
        "296": 0.0745894135714995,
        "297": -0.06655014080270234,
        "298": 0.02961530990290956,
        "299": -0.01621375821340351,
        "300": -0.03428395116365411,
        "301": 0.003297485892225081,
        "302": -0.0033772480569851447,
        "303": -0.01816521520738816,
        "304": 0.035417850220857444,
        "305": -0.04964510170315952,
        "306": 0.05155020534053373,
        "307": -0.025177998237061076,
        "308": -0.026765293194615444,
        "309": -0.023358369842091487,
        "310": 0.0013002809723017344,
        "311": -0.006523154996770296,
        "312": 0.0213606632621934,
        "313": 0.00904920464416582,
        "314": 0.007948034279744741,
        "315": 0.012038844742690756,
        "316": -0.015919240866995463,
        "317": -0.030822079266197854,
        "318": -0.008881143884518472,
        "319": -0.0036152201262305106,
        "320": 0.014145354197714125,
        "321": 0.017190745472219892,
        "322": 0.01810608617598538,
        "323": 0.014409417347127881,
        "324": -0.13956095344533617,
        "325": 0.02612156234377624,
        "326": 0.07820309137662204,
        "327": 0.05083252914279365,
        "328": 0.04479044736680337,
        "329": -0.02747886460753171,
        "330": 0.018019713100341495,
        "331": -0.033157232893257664,
        "332": 0.023512330010944098,
        "333": 0.05384249877787146,
        "334": -0.0848999619668442,
        "335": -0.027812260413173882,
        "336": -0.012827175241545075,
        "337": 0.001202842298807048,
        "338": -0.013047669639268029,
        "339": -0.030663579084436152,
        "340": -0.015886618023101432,
        "341": -0.0062452753878414055,
        "342": -0.015839344345548324,
        "343": -0.011320638643963161,
        "344": -0.010042789073780563,
        "345": -0.012851107172187435,
        "346": -0.025789361598864878,
        "347": -0.01234910502586924,
        "348": -0.04897437378184815,
        "349": -0.04559825263085313,
        "350": 0.12413348316942667,
        "351": 0.010067687797520547,
        "352": 0.07814192379209596,
        "353": 0.007691015194293088,
        "354": -0.046983466340165356,
        "355": -0.05745836451252752,
        "356": 0.00047330854405635685,
        "357": 0.0034205500423541055,
        "358": 0.016197547025919714,
        "359": 0.013915672134301987,
        "360": -0.021118143329440595,
        "361": -0.09710998400531326,
        "362": 0.09862716964934024,
        "363": 0.08717686830631252,
        "364": 0.10872903373380044,
        "365": -0.029412415100600667,
        "366": -0.07397518390377711,
        "367": 0.0043791036037722185,
        "368": 0.06785878834598674,
        "369": -0.04458716411784431,
        "370": -0.06160539334675516,
        "371": 0.09183073947676275,
        "372": -0.0006440288699498123,
        "373": -0.02036690724072557,
        "374": -0.02080778344052268,
        "375": -0.020799384470190425,
        "376": 0.014372530078092222,
        "377": -0.028870538104112147,
        "378": 0.0737698185051621,
        "379": -0.0376533943622686,
        "380": -0.04872255711739659,
        "381": -0.038334021754316064,
        "382": 0.0848979634772471,
        "383": -0.012929349422914335,
        "384": 0.018865754700535347,
        "385": 0.010013705839247537,
        "386": 0.012039696924246132,
        "387": 0.009427808054138913,
        "388": 0.03320260637411321,
        "389": 0.012860375459147744,
        "390": 0.0003984612808330846,
        "391": 0.005564410298159756,
        "392": 0.12808304135706092,
        "393": -0.06094442472923342,
        "394": -0.088616496946351,
        "395": -0.0005939997517041004,
        "396": -0.04735808301022341,
        "397": 0.03144569468093879,
        "398": 0.015506289091256231,
        "399": -0.016198362526175555
      }
    },
    "b1": {
      "n": 100,
      "d": 1,
      "w": {
        "0": 0.00043758861513326343,
        "1": -9.933099482162786e-7,
        "2": 0.000034646085570141616,
        "3": -0.0005807206345033367,
        "4": -0.0002472202202083529,
        "5": 0.00015870068961049342,
        "6": -0.00019897226091801273,
        "7": 0.00141175544917472,
        "8": -0.0009804136357853637,
        "9": 0.000127771158535452,
        "10": -0.0012459285486346168,
        "11": -0.0010993578332574917,
        "12": 0.0000284059066717845,
        "13": -0.00023457068571226965,
        "14": 0.0002530392757318994,
        "15": -0.00006355494502228369,
        "16": -0.0021120206830822297,
        "17": -0.0005658481193692849,
        "18": -0.0001372149175328891,
        "19": -0.000011800786720433298,
        "20": 0.0003749634251761518,
        "21": -0.00016581116752273006,
        "22": -0.0022441520505209556,
        "23": -0.0021319879471254546,
        "24": -0.00012411192000785282,
        "25": -0.00035879324500157083,
        "26": -0.00009474207793345332,
        "27": 0.0009128629397755382,
        "28": -0.0000624636220233738,
        "29": -0.0002434016649132392,
        "30": -0.0012147146020914002,
        "31": 0.0002249719490067341,
        "32": 0.00018477404009593947,
        "33": -0.00002681423775097064,
        "34": -0.000385078903568894,
        "35": 0.0002583367851719151,
        "36": 0.0004269871440511567,
        "37": -0.00013591410472696319,
        "38": -0.000034866004858013034,
        "39": 0.0007933365440388982,
        "40": 0.0015372473164555853,
        "41": 0.001148094032873255,
        "42": -0.00003194262653435026,
        "43": -0.00021136899131672917,
        "44": -0.000601910418327176,
        "45": -0.0011409931345083611,
        "46": 0.0009168747668750464,
        "47": -0.0010038465381457286,
        "48": -0.000027541239167490042,
        "49": 0.00012734724573393956,
        "50": -0.00021168751713547857,
        "51": 0.000011405795479842879,
        "52": -0.000318959474512647,
        "53": 0.00047433308080721526,
        "54": -0.00006281311869377464,
        "55": -0.0008358301867111049,
        "56": 0.0000014955049219875886,
        "57": -0.0001342595988975138,
        "58": 0.00015473130109553215,
        "59": 0.0001663611020814524,
        "60": -0.00028658575953595785,
        "61": -0.00018994883195609031,
        "62": 0.00014738896303682106,
        "63": 0.0018771637940116742,
        "64": -0.000052928731206293985,
        "65": -0.000033487519693987076,
        "66": 0.0007104107764000716,
        "67": -0.00005814454426229814,
        "68": 0.0007407025517712344,
        "69": -0.00047866395720272414,
        "70": 0.00016811028611727203,
        "71": 0.00016775865194604834,
        "72": 0.00018419876736126343,
        "73": 0.001639538603146046,
        "74": 0.0003106928420561734,
        "75": -0.0002886301545848721,
        "76": -0.0004061430413189315,
        "77": -0.00011339573138488138,
        "78": 0.00017931296880999096,
        "79": -0.00012571484335329475,
        "80": 0.00015388443365686697,
        "81": 0.0010904260350473164,
        "82": -0.00015376338212925124,
        "83": 0.0013447090430526512,
        "84": -0.00022688707400676916,
        "85": 0.0000328860196227372,
        "86": -0.00022404619238618718,
        "87": -0.0026710480158305986,
        "88": 0.000030506020475374152,
        "89": 0.00008245466151671304,
        "90": -0.0022731410152118815,
        "91": 0.0008508769310469366,
        "92": -0.00039631582139142526,
        "93": -0.00010610681823502919,
        "94": -0.001067501304730614,
        "95": -0.0008420963181082101,
        "96": 0.00007722576011706714,
        "97": -0.000019900133848839475,
        "98": 0.0009664469031159242,
        "99": -0.0004067518009224331
      }
    },
    "W2": {
      "n": 8,
      "d": 100,
      "w": {
        "0": 0.017160289004110166,
        "1": -0.004585077497931943,
        "2": -0.002662693181509659,
        "3": 0.0047349275320075525,
        "4": -0.031431173178292394,
        "5": 0.01660135305019052,
        "6": -0.024109179704106084,
        "7": -0.008758740926733052,
        "8": -0.03683245459969124,
        "9": 0.03636208799621613,
        "10": -0.044183944045960134,
        "11": -0.01318526744751384,
        "12": 0.00644856759291716,
        "13": -0.027385333840739,
        "14": 0.026213287654520377,
        "15": -0.028476800305973035,
        "16": -0.03712982075012664,
        "17": -0.017417595071616075,
        "18": -0.020790342602794415,
        "19": -0.03227678727342602,
        "20": 0.01941563618883439,
        "21": -0.006116825140597953,
        "22": -0.036758708717956244,
        "23": -0.05341273848813838,
        "24": 0.0022114749382493863,
        "25": -0.024827655794760175,
        "26": -0.006422177805852652,
        "27": 0.040187329196272006,
        "28": 0.01859534113684658,
        "29": -0.011510357385348098,
        "30": 0.0123929589359493,
        "31": 0.02311553561782767,
        "32": -0.0037051544509849083,
        "33": 0.0021480122257039797,
        "34": -0.030363760413180698,
        "35": -0.025509382768120932,
        "36": -0.01664128101356344,
        "37": -0.01544328234018916,
        "38": -0.009252140644702195,
        "39": 0.0362075687405289,
        "40": 0.023641988455717473,
        "41": -0.0035989532294159977,
        "42": 0.024439572067977693,
        "43": -0.010056266782742716,
        "44": -0.01740760663696082,
        "45": -0.057094822718264424,
        "46": -0.008144579033431262,
        "47": -0.05247576701912473,
        "48": -0.022343177653314766,
        "49": 0.011641849814855946,
        "50": -0.003207470016649972,
        "51": -0.01552169276314543,
        "52": -0.03874293356310782,
        "53": 0.011735470602122034,
        "54": -0.02382493765778067,
        "55": -0.04123375330063714,
        "56": -0.024067534367456567,
        "57": -0.011920512683830849,
        "58": -0.01394218643884703,
        "59": 0.0276317187817641,
        "60": 0.012476812195249015,
        "61": 0.03063139503197887,
        "62": 0.014697952707108213,
        "63": 0.007110564659234682,
        "64": 0.033336665465845364,
        "65": -0.019479911404360697,
        "66": 0.014540167576376758,
        "67": -0.015445390545664024,
        "68": -0.01927679163401401,
        "69": 0.0028205984193928617,
        "70": 0.033463877605670315,
        "71": 0.012907234496456187,
        "72": -0.006459649688795281,
        "73": 0.06268639173376805,
        "74": 0.029852371722436082,
        "75": -0.024731157854132692,
        "76": 0.010777311761667801,
        "77": -0.019715594764204765,
        "78": 0.023312627856295176,
        "79": -0.04099628138902186,
        "80": 0.017311755864606877,
        "81": 0.06134304153104234,
        "82": -0.013866614074257468,
        "83": 0.04558960997452223,
        "84": -0.02004052839841111,
        "85": -0.026427479295415147,
        "86": -0.017836787102359943,
        "87": -0.0422990905773766,
        "88": -0.012951079811819297,
        "89": 0.014662731515783773,
        "90": -0.04300339556569971,
        "91": -0.0682259595700247,
        "92": -0.02199812098882908,
        "93": -0.015323474576812162,
        "94": 0.01506645196547232,
        "95": -0.03390602676344516,
        "96": 0.008961046727484807,
        "97": 0.015227275310027398,
        "98": 0.00776300291054752,
        "99": 0.010937132591110206,
        "100": 0.026042365598940662,
        "101": -0.0009940075866534588,
        "102": -0.020575242540312542,
        "103": -0.011865922046687507,
        "104": -0.02112061053983722,
        "105": 0.00600519792605616,
        "106": -0.013194301771271249,
        "107": 0.004219492302177366,
        "108": -0.025580335053928448,
        "109": 0.015919567045788962,
        "110": -0.04340771352581623,
        "111": -0.026721396810276916,
        "112": 0.018049227168891735,
        "113": -0.038039983860515277,
        "114": 0.01128448395103473,
        "115": -0.021198142967339226,
        "116": -0.047355441792488046,
        "117": -0.000981606736777769,
        "118": -0.01612408999525652,
        "119": -0.00782476310788058,
        "120": 0.008201970299831893,
        "121": -0.017197960892090088,
        "122": -0.018669931425965066,
        "123": -0.025287259497711795,
        "124": 0.010554034582375022,
        "125": -0.016034751781557187,
        "126": -0.03366996608782514,
        "127": 0.01602942335466843,
        "128": 0.021298746449718527,
        "129": -0.030115319046597488,
        "130": 0.005629122848579424,
        "131": 0.02849253003472654,
        "132": 0.03489450794019937,
        "133": 0.035069763244102325,
        "134": -0.024789956868023412,
        "135": -0.03048170786736998,
        "136": -0.015718350980467918,
        "137": 0.013411785498613766,
        "138": -0.030431380117645436,
        "139": 0.02646335085579337,
        "140": 0.03695547608726051,
        "141": 0.03811552758190874,
        "142": 0.010603744419084599,
        "143": -0.030506955726650964,
        "144": -0.03262839332114393,
        "145": -0.05595294384457948,
        "146": 0.010927459219664223,
        "147": -0.02485826245030816,
        "148": -0.00794120426346132,
        "149": 0.0312149696572634,
        "150": 0.005063976992762219,
        "151": 0.006301499854904892,
        "152": -0.02542071515744443,
        "153": -0.00030422338055491197,
        "154": -0.013174947114708511,
        "155": -0.041624448792351956,
        "156": -0.04502418975143073,
        "157": -0.030641876468876884,
        "158": -0.022180373287224088,
        "159": 0.012966651956533196,
        "160": -0.024689725881142273,
        "161": -0.0007989292436787687,
        "162": -0.005022929515201288,
        "163": 0.01228317803607012,
        "164": 0.03499523119421278,
        "165": 0.0028669460170766504,
        "166": 0.013238746480670882,
        "167": -0.02234406055302836,
        "168": -0.011211337069766819,
        "169": -0.00275994374173793,
        "170": 0.04218942802040543,
        "171": 0.009783920494697153,
        "172": -0.008123466376682098,
        "173": 0.04216011396803812,
        "174": -0.013130587855664443,
        "175": -0.005852602024558725,
        "176": -0.02114229050806968,
        "177": -0.0060492067652971075,
        "178": 0.030141597159775043,
        "179": -0.03816160962043861,
        "180": -0.006738310074775552,
        "181": 0.019940968954711064,
        "182": 0.006332284354222657,
        "183": 0.05320663060380784,
        "184": -0.009753717152887637,
        "185": -0.037560876827716284,
        "186": -0.015750122008918004,
        "187": -0.03307768169034723,
        "188": 0.004784861957656924,
        "189": 0.02282449013445474,
        "190": -0.046927551123244426,
        "191": -0.02143069965611094,
        "192": -0.03628923043366336,
        "193": -0.027802691932175765,
        "194": -0.044751136991264075,
        "195": -0.03304875184639864,
        "196": 0.033124658036962414,
        "197": 0.02871450185052993,
        "198": 0.006874007979371029,
        "199": 0.008618300258898627,
        "200": 0.04168395212946221,
        "201": 0.008367337592483197,
        "202": -0.03554984901471865,
        "203": 0.02230384662561516,
        "204": -0.03523972216690792,
        "205": 0.03284958286335809,
        "206": -0.016946929248108686,
        "207": 0.0011015936550472917,
        "208": -0.022763012784410827,
        "209": 0.008874818558948838,
        "210": -0.011846937003137829,
        "211": -0.024812397522340754,
        "212": 0.01587826414663995,
        "213": -0.009792283415693988,
        "214": 0.002896750505659846,
        "215": -0.02267283309814158,
        "216": -0.05131076880294667,
        "217": -0.02227716442599961,
        "218": -0.006687525700938885,
        "219": -0.01908098467338502,
        "220": 0.0032345618726765785,
        "221": -0.01853429490390781,
        "222": -0.07647648812941651,
        "223": -0.06601451399726299,
        "224": 0.04961016020109954,
        "225": -0.02474068386587851,
        "226": -0.01554880591842319,
        "227": 0.0795888865018715,
        "228": 0.03521002203076313,
        "229": -0.041726756638915494,
        "230": 0.005717516505397017,
        "231": 0.010670337692593025,
        "232": 0.035560096155819315,
        "233": -0.006434606667209467,
        "234": -0.021069046629091388,
        "235": 0.007615122083167959,
        "236": 0.005830531965612221,
        "237": -0.030206736289871455,
        "238": -0.02507646919129147,
        "239": 0.021855220877134922,
        "240": 0.03145080805451632,
        "241": 0.03759919073991966,
        "242": 0.03211142759248091,
        "243": -0.014866450193161178,
        "244": -0.04119625266552917,
        "245": -0.023851170112090394,
        "246": 0.025203008523392023,
        "247": -0.045115609191874136,
        "248": -0.03191326615187655,
        "249": 0.022910291010772063,
        "250": -0.006927896764238064,
        "251": -0.023945941105942864,
        "252": -0.02618709533498135,
        "253": 0.003988430986600278,
        "254": -0.03184747237059328,
        "255": -0.025021478626255936,
        "256": -0.004987181206994099,
        "257": -0.013234354901867335,
        "258": 0.004457666102312783,
        "259": 0.01299111245974096,
        "260": -0.01676517735310566,
        "261": 0.006509751935805277,
        "262": 0.02605606059562722,
        "263": 0.03458253781180806,
        "264": 0.03909302373256501,
        "265": -0.03540781116533213,
        "266": 0.010553745951089093,
        "267": -0.009228049823826178,
        "268": -0.03228648916473484,
        "269": -0.03487521876445765,
        "270": 0.027185919863896034,
        "271": 0.01701992966261056,
        "272": 0.006218204077864379,
        "273": 0.03860014229920371,
        "274": 0.04511595157182998,
        "275": -0.013438034460872337,
        "276": 0.011508791284609705,
        "277": -0.02833896356043585,
        "278": 0.008452096036242172,
        "279": -0.016150136835961604,
        "280": 0.01952638054952736,
        "281": 0.03649256111239694,
        "282": 0.01137391880636856,
        "283": 0.028725717421693085,
        "284": -0.015305825226392114,
        "285": -0.007363171169014963,
        "286": -0.018789332859086863,
        "287": -0.0572208561005776,
        "288": -0.04180815260524163,
        "289": 0.001917221151375684,
        "290": -0.0996883267816364,
        "291": -0.07376797079805007,
        "292": -0.019510664926277368,
        "293": -0.022198131282999137,
        "294": -0.013725378253646519,
        "295": -0.04416721158978674,
        "296": 0.012406288824509644,
        "297": 0.02961917277584336,
        "298": 0.060353407591743076,
        "299": 0.026338534598245335,
        "300": 0.008199714532072487,
        "301": -0.02088489304914213,
        "302": -0.037201702555575665,
        "303": -0.010632167520435718,
        "304": -0.029545595382138166,
        "305": 0.02767960062220015,
        "306": -0.02209021761531575,
        "307": 0.014303606856110512,
        "308": -0.02118014564981789,
        "309": 0.000941754641971556,
        "310": -0.032374290053815334,
        "311": -0.0166520214532309,
        "312": 0.01005644494614587,
        "313": -0.020828804658741328,
        "314": 0.021796363620977553,
        "315": -0.023356723813051563,
        "316": -0.0430264639825579,
        "317": 0.008200387156939989,
        "318": -0.02952420857654985,
        "319": -0.021310032278995965,
        "320": 0.02015243410129771,
        "321": -0.0040012747425884595,
        "322": -0.02749485173391597,
        "323": -0.027634656468059036,
        "324": 0.03521755708610792,
        "325": -0.012190621771792936,
        "326": -0.020103206951646056,
        "327": 0.035485238793618805,
        "328": 0.05413275007243416,
        "329": -0.00837238746189095,
        "330": -0.02330246479195475,
        "331": 0.014943079547153801,
        "332": 0.019412478247968958,
        "333": 0.01882383443886475,
        "334": -0.024086661061366643,
        "335": -0.026477715629505127,
        "336": -0.007701704255300857,
        "337": 0.025547612489149694,
        "338": -0.010432499532427345,
        "339": 0.004665707533971193,
        "340": 0.020928809244031094,
        "341": 0.03652281221416115,
        "342": 0.0423092747212973,
        "343": -0.036390279961928104,
        "344": -0.03278335621821983,
        "345": -0.03777440938959181,
        "346": 0.0016444098915646577,
        "347": -0.030587641440349096,
        "348": -0.017879835929894086,
        "349": 0.01865956365759127,
        "350": -0.002806985168748576,
        "351": 0.0051378265317964114,
        "352": -0.04697139920794951,
        "353": -0.016096671332118187,
        "354": 0.00484987329116709,
        "355": -0.05061450202501246,
        "356": -0.012711898585006058,
        "357": -0.005106317562445597,
        "358": -0.005932505325570754,
        "359": 0.017967942298906896,
        "360": -0.0050513270733408555,
        "361": -0.002999109992259734,
        "362": 0.030276681185961093,
        "363": 0.03172666843947281,
        "364": 0.035535063341343154,
        "365": -0.028409629233934582,
        "366": 0.03339912560622518,
        "367": -0.00530102411054455,
        "368": -0.04123391062114965,
        "369": 0.0016552713325808587,
        "370": 0.016468551734620595,
        "371": 0.026353519666232398,
        "372": -0.025917987645868876,
        "373": 0.045017336154801385,
        "374": 0.002465691853959786,
        "375": -0.017536921446964067,
        "376": -0.013569017628072066,
        "377": -0.02682510817051784,
        "378": 0.010730640403428698,
        "379": -0.02147104922824601,
        "380": 0.03041472117228684,
        "381": 0.04174180293762914,
        "382": 0.004296792197393081,
        "383": 0.07163813069492454,
        "384": -0.021909985518749467,
        "385": -0.013701492646294734,
        "386": -0.010018341202080276,
        "387": -0.04055440805803047,
        "388": -0.010630553150201207,
        "389": -0.0005790918963615699,
        "390": -0.05748365548105916,
        "391": -0.03218477740968412,
        "392": -0.018774456023093352,
        "393": -0.01709255645043596,
        "394": -0.025398716786745233,
        "395": -0.03596477613403516,
        "396": 0.020987025284584855,
        "397": 0.022754378591710332,
        "398": -0.01911726398858638,
        "399": 0.005353506593487501,
        "400": -0.0011796097040125647,
        "401": -0.02998498729008131,
        "402": -0.021088222457612237,
        "403": 0.010950233449329341,
        "404": -0.036100955816501475,
        "405": 0.011853821326607464,
        "406": -0.013719680067608382,
        "407": -0.008061635238936186,
        "408": -0.02012243601934491,
        "409": 0.022038520677092808,
        "410": -0.05762693865511717,
        "411": -0.055882070301257414,
        "412": 0.03235051652076578,
        "413": 0.015036029176788241,
        "414": -0.0009101852166315172,
        "415": -0.06527325889431154,
        "416": -0.05834294382281286,
        "417": -0.00976725385204363,
        "418": -0.024358103929158565,
        "419": -0.020481687390018613,
        "420": 0.02514934245038482,
        "421": -0.01301361191169197,
        "422": -0.03697906565728174,
        "423": -0.05715907987110014,
        "424": -0.001231521289271556,
        "425": -0.011345171749867548,
        "426": -0.011067211785112939,
        "427": 0.09744172577795,
        "428": -0.0019399282381204052,
        "429": -0.010431240705541134,
        "430": 0.025942937983500225,
        "431": 0.02013388107383871,
        "432": 0.018062924281709233,
        "433": 0.020290763474226932,
        "434": -0.033065468197189675,
        "435": -0.015985570727769564,
        "436": -0.014659326159950716,
        "437": 0.02214440734874487,
        "438": -0.019688515821393103,
        "439": 0.007145187507052296,
        "440": 0.03143319402115135,
        "441": -0.0167726896624509,
        "442": 0.009187210896524845,
        "443": -0.02682501846341685,
        "444": 0.0026627647185485555,
        "445": -0.0541201485587754,
        "446": 0.0007946083293060651,
        "447": -0.03395580456328966,
        "448": -0.01906133950828727,
        "449": -0.0032327597877336513,
        "450": -0.02667449809490562,
        "451": -0.0013799246211968737,
        "452": -0.014084529807428742,
        "453": -0.006485744941866603,
        "454": -0.00923394825817692,
        "455": -0.022235333691255396,
        "456": -0.016496913258107655,
        "457": -0.020765885229753277,
        "458": -0.012536322425141203,
        "459": 0.011559278283030244,
        "460": 0.009114989346868604,
        "461": 0.030808016345872755,
        "462": 0.02739100010627463,
        "463": 0.0019410234330719666,
        "464": 0.03219289743863705,
        "465": -0.02692263915179215,
        "466": 0.051913240031648294,
        "467": 0.0025974734860404374,
        "468": -0.0011366485416107383,
        "469": -0.013926573733277525,
        "470": 0.049716545622248906,
        "471": 0.006474639008146877,
        "472": -0.033371563993146426,
        "473": 0.04786817282272422,
        "474": 0.018283358357003354,
        "475": -0.005238929730048696,
        "476": 0.04178613872851102,
        "477": -0.028168696109627793,
        "478": 0.010850784475764623,
        "479": -0.020657936959435786,
        "480": 0.011615219406928707,
        "481": 0.0828446776053485,
        "482": -0.0034799743768945267,
        "483": 0.04719386971577897,
        "484": 0.005098738637298303,
        "485": -0.01737097307853498,
        "486": -0.011177942062583273,
        "487": -0.04540715615391979,
        "488": -0.06411858278240716,
        "489": 0.03370758514203392,
        "490": -0.06019028233298184,
        "491": -0.07219907914233965,
        "492": -0.04831547808188688,
        "493": -0.00369709657618483,
        "494": 0.012702947753212871,
        "495": -0.05294471325524564,
        "496": 0.008008808075961622,
        "497": 0.03322270257474161,
        "498": -0.07614200085092199,
        "499": -0.007065429263142796,
        "500": 0.022419285880643555,
        "501": -0.008477953217592355,
        "502": -0.01551897054414175,
        "503": -0.011297659205486475,
        "504": -0.05193807007841351,
        "505": 0.03008108959584431,
        "506": -0.030527016584060488,
        "507": 0.02201359356638417,
        "508": -0.04995067533030389,
        "509": 0.044738550297601105,
        "510": -0.041267821432136684,
        "511": -0.04493196194284436,
        "512": -0.024747530809205994,
        "513": -0.035144796645276824,
        "514": 0.01980320123191611,
        "515": 0.007184191108740202,
        "516": -0.04435630648504669,
        "517": -0.021677333771351153,
        "518": -0.02896025586848305,
        "519": -0.004235283396952439,
        "520": 0.027077774910149687,
        "521": -0.01889680935130192,
        "522": -0.06715756925363142,
        "523": -0.0476094223016858,
        "524": 0.016199458362026294,
        "525": 0.006312485318041463,
        "526": -0.01091398590099875,
        "527": 0.034361234769054914,
        "528": -0.017063950955789074,
        "529": -0.0007394567473120887,
        "530": -0.009259008584907469,
        "531": 0.03246164493103231,
        "532": 0.02454926714305076,
        "533": -0.01040347558564952,
        "534": -0.05151656048254971,
        "535": 0.011482734886211831,
        "536": 0.017847857733690416,
        "537": -0.019017521166041013,
        "538": -0.01882654859865233,
        "539": 0.028844194952090965,
        "540": 0.0607215429647322,
        "541": 0.05927972967248035,
        "542": 0.004457333452810008,
        "543": -0.028466804423611984,
        "544": -0.053793512704091793,
        "545": -0.03078292128097724,
        "546": 0.0273115376007455,
        "547": -0.05216641324735768,
        "548": -0.012886600018328252,
        "549": 0.01735012288768349,
        "550": -0.019191630480041494,
        "551": 0.019336139781516833,
        "552": -0.02545818631547748,
        "553": -0.011405348421365173,
        "554": -0.0111473380093196,
        "555": -0.02950738694863394,
        "556": 0.03391435497399754,
        "557": -0.0373457675609924,
        "558": -0.02852650780623247,
        "559": 0.027982349467452226,
        "560": 0.010003565762644733,
        "561": 0.012135188202119479,
        "562": 0.02395735308435435,
        "563": 0.06474980653046238,
        "564": -0.004466977990394786,
        "565": -0.020640791223424545,
        "566": 0.0063317466848839075,
        "567": -0.020956833854216202,
        "568": 0.050716588169622635,
        "569": -0.034025675911912405,
        "570": 0.005573109154317587,
        "571": 0.02268054221825561,
        "572": 0.012518548171033561,
        "573": 0.035511870815813605,
        "574": 0.0062822013872118705,
        "575": -0.028276633126696295,
        "576": -0.049994495947132844,
        "577": -0.03047740682435319,
        "578": 0.004199538375736284,
        "579": -0.03218480555434196,
        "580": 0.04764296326778404,
        "581": 0.016674409682411795,
        "582": -0.038341323689614945,
        "583": 0.03336130366978366,
        "584": -0.022645593678573443,
        "585": 0.014102176938521461,
        "586": -0.03327223455318642,
        "587": -0.07582871302160153,
        "588": -0.0030099602890031937,
        "589": -0.013711371887705735,
        "590": -0.06602946903960967,
        "591": 0.02055167158252489,
        "592": -0.0065939791601533305,
        "593": -0.012033475854457737,
        "594": -0.07686652485612538,
        "595": -0.023292259363107783,
        "596": 0.008502475962585649,
        "597": 0.010591513758388646,
        "598": 0.04404113555365144,
        "599": -0.024684718676738434,
        "600": 0.026209543672980035,
        "601": -0.017840152986992274,
        "602": -0.008565910568260164,
        "603": -0.04038220769048426,
        "604": -0.027647559388072004,
        "605": 0.0038061986029713077,
        "606": -0.009751547852489417,
        "607": 0.01217963699843413,
        "608": -0.13550067812399139,
        "609": 0.01999738582904236,
        "610": -0.04554755799687679,
        "611": -0.07922734174451872,
        "612": -0.0017691106768651917,
        "613": -0.018137947563447443,
        "614": 0.03141306816333623,
        "615": -0.07312550429552463,
        "616": -0.010880561569015953,
        "617": 0.009497488184686353,
        "618": -0.022805509008398117,
        "619": -0.020608645444489374,
        "620": 0.006811885901090407,
        "621": -0.0333106350519427,
        "622": -0.07522565195075702,
        "623": -0.029125435485606622,
        "624": -0.003418868510217719,
        "625": -0.008854508559585476,
        "626": -0.00867913429503752,
        "627": 0.09540014096846595,
        "628": 0.008139417206209375,
        "629": -0.01394767716230556,
        "630": -0.007788443804256272,
        "631": 0.020153012746277767,
        "632": 0.027048503070915792,
        "633": 0.034207513179278545,
        "634": -0.007763403971912878,
        "635": 0.01596851563056048,
        "636": 0.04397277943740199,
        "637": 0.033205340257972296,
        "638": -0.007981972436637196,
        "639": -0.014940263686170671,
        "640": 0.12602511527754107,
        "641": 0.025082885007708805,
        "642": 0.024113674743901116,
        "643": -0.009337706048268229,
        "644": -0.020879982026685246,
        "645": -0.0567464419046603,
        "646": 0.03202008681293458,
        "647": -0.026650058905809237,
        "648": -0.02563461734988788,
        "649": 0.024801285958339147,
        "650": -0.017228331614191284,
        "651": 0.0031830764425879064,
        "652": -0.022105254068803322,
        "653": 0.042541722913865675,
        "654": -0.0007838769671629711,
        "655": -0.028103258149857216,
        "656": -0.13536284577459165,
        "657": -0.015363835926076725,
        "658": 0.04345462865626833,
        "659": 0.019262741087162385,
        "660": -0.06238665899690166,
        "661": -0.04219488288781316,
        "662": 0.029131748379670024,
        "663": 0.052347806483419586,
        "664": 0.03057293219607934,
        "665": -0.012675690776184675,
        "666": 0.0819597753079842,
        "667": -0.01798354068656143,
        "668": 0.02362396935976391,
        "669": 0.022462009619484802,
        "670": 0.06001296352142933,
        "671": 0.0290893284713967,
        "672": 0.00655900109538724,
        "673": 0.0479575095721428,
        "674": -0.03362516426561309,
        "675": -0.03542185643443703,
        "676": -0.024606786154088664,
        "677": -0.022746699671928203,
        "678": 0.022421108996860718,
        "679": -0.007421791230426602,
        "680": 0.033691604179578255,
        "681": 0.13820877895832034,
        "682": -0.0362153396733895,
        "683": 0.014410774279654199,
        "684": -0.029379121524399865,
        "685": -0.023181260327047665,
        "686": -0.0162581694477294,
        "687": -0.050421878801124045,
        "688": -0.04576575897854562,
        "689": -0.004402753625574854,
        "690": -0.022906955983309673,
        "691": -0.02358623797204004,
        "692": -0.07856049033541977,
        "693": -0.022637878000242303,
        "694": -0.025800482109388057,
        "695": -0.05999887264824803,
        "696": 0.01142414320919737,
        "697": 0.008643354166190614,
        "698": -0.0928541248928384,
        "699": -0.004837388711841711,
        "700": 0.0389465006566412,
        "701": -0.026794671542860027,
        "702": -0.03201252004040505,
        "703": 0.004440790992105829,
        "704": -0.01802187316404534,
        "705": 0.015623230300596138,
        "706": -0.01490967251077853,
        "707": 0.0353727759251749,
        "708": -0.020333574905629252,
        "709": 0.018378117975620917,
        "710": -0.03116453476965814,
        "711": -0.01340988391971243,
        "712": 0.03617205620443219,
        "713": -0.00475747211678377,
        "714": 0.027499468937770694,
        "715": -0.0415184057022903,
        "716": -0.047725555791365885,
        "717": 0.0022393385971102024,
        "718": -0.011403373559182622,
        "719": 0.002694313823352431,
        "720": 0.011941778938810375,
        "721": -0.022529605638259124,
        "722": -0.025014274063414176,
        "723": -0.04693079065436248,
        "724": -0.0008102924586521414,
        "725": 0.0005015986357095165,
        "726": -0.03449217838031586,
        "727": 0.05049325862166596,
        "728": 0.04336042017144999,
        "729": -0.014353017731000232,
        "730": -0.057430097056976104,
        "731": 0.02831418746293733,
        "732": 0.020265682677202163,
        "733": 0.011371052613512065,
        "734": -0.030863988721088975,
        "735": -0.006867965452957583,
        "736": 0.008734714188460634,
        "737": 0.035570764502100255,
        "738": -0.024481028582813494,
        "739": -0.025544678806929965,
        "740": 0.004796186561542868,
        "741": 0.00010979630185390372,
        "742": 0.016629125210092424,
        "743": -0.02460239660544604,
        "744": -0.022911310811602276,
        "745": -0.020782011717279725,
        "746": 0.004420515479430016,
        "747": -0.05887489347003104,
        "748": -0.014170674869340144,
        "749": 0.03345823530419817,
        "750": -0.020510280608052982,
        "751": 0.025492122207302535,
        "752": -0.028669836174906243,
        "753": -0.030967438493870292,
        "754": -0.015186683492324453,
        "755": -0.03927550114362078,
        "756": -0.027067147389767964,
        "757": -0.02323921330822189,
        "758": -0.02887557889689542,
        "759": 0.020513616113296655,
        "760": 0.033412186138375655,
        "761": 0.025485632887835112,
        "762": 0.01223020552527474,
        "763": 0.021539523158867004,
        "764": 0.024025405744082438,
        "765": -0.026088338396736518,
        "766": -0.0006017441753396309,
        "767": -0.02823736894201835,
        "768": 0.008421024723865671,
        "769": -0.010457287638254063,
        "770": 0.03601113404429527,
        "771": 0.022162317557128764,
        "772": -0.005965873540215919,
        "773": 0.034866821545328774,
        "774": 0.010504672986111607,
        "775": -0.023837974277722572,
        "776": -0.0012796996483342734,
        "777": -0.02422816914143088,
        "778": 0.03155424116962056,
        "779": -0.021531008481824446,
        "780": 0.006716814578542841,
        "781": 0.05673328961866966,
        "782": -0.008894727129700903,
        "783": 0.036608491036515915,
        "784": 0.0019197071520194028,
        "785": -0.009113408172096512,
        "786": -0.0005779015017753919,
        "787": -0.014443755196488214,
        "788": 0.054948112654228685,
        "789": -0.0006659252109964893,
        "790": -0.06936522238197439,
        "791": -0.05426477764759846,
        "792": -0.07432521051004987,
        "793": -0.037084824533230004,
        "794": 0.003296795410165173,
        "795": -0.0503474844758634,
        "796": 0.02586238768824326,
        "797": 0.037803325883105664,
        "798": 0.02057452727238236,
        "799": -0.004167922058387178
      }
    },
    "b2": {
      "n": 8,
      "d": 1,
      "w": {
        "0": 0.018351193453630867,
        "1": 0.016504356619558725,
        "2": 0.01576244504889781,
        "3": 0.01225193952619643,
        "4": 0.017076327049507404,
        "5": 0.026426962982124026,
        "6": 0.02035755553877903,
        "7": 0.01741477781058573
      }
    }
  }
}